{
  "network": {
    "epochs": 6500,
    "inputs": 2,
    "eta": 0.05263157894736845,
    "momentum": 0,
    "adaptive_bold": {
      "a": 0.01,
      "b": 0.1,
      "k": 3
    },
    "adaptive_annealing": null,
    "layers": [
      {
        "neurons": 8,
        "activation_function": {
          "type": "htan",
          "a": 1.7159,
          "beta": 0.6666666666666666
        },
        "neuron_weights": [
          {
            "bias": -1.6367496723822803,
            "weights": [
              1.6970506066661235,
              0.3567341776271453
            ]
          },
          {
            "bias": -0.38517987596186054,
            "weights": [
              0.5734820047874882,
              -0.45845246005184725
            ]
          },
          {
            "bias": -1.0855905104294514,
            "weights": [
              -1.247296038559724,
              0.25562664386975137
            ]
          },
          {
            "bias": -0.6378379814479532,
            "weights": [
              1.3537368944475803,
              0.8875959059208536
            ]
          },
          {
            "bias": 1.1698714511796204,
            "weights": [
              0.35549751156496306,
              -1.4798307923356127
            ]
          },
          {
            "bias": -0.5592462891664303,
            "weights": [
              -0.17910890108506472,
              -0.25053084959320965
            ]
          },
          {
            "bias": -1.4816218940312835,
            "weights": [
              0.3819865050267551,
              -1.6881411208145545
            ]
          },
          {
            "bias": -0.08253374616303519,
            "weights": [
              0.0890210617248055,
              2.2378336441070537
            ]
          }
        ]
      },
      {
        "neurons": 8,
        "activation_function": {
          "type": "htan",
          "a": 1.7159,
          "beta": 0.6666666666666666
        },
        "neuron_weights": [
          {
            "bias": -0.8411464352743449,
            "weights": [
              -0.6739120705838988,
              -0.7284425635009142,
              0.2742606182994258,
              0.8645593866427967,
              -0.6305581298124763,
              -0.34151689835574284,
              -0.9547713861616114,
              -1.6005331282696145
            ]
          },
          {
            "bias": -0.6934949312511509,
            "weights": [
              0.45037597959015235,
              0.6172708748923399,
              -1.1130407952974526,
              0.12588649585361722,
              -0.8039880960066136,
              0.28473167473079564,
              -0.9354574236106526,
              -1.1065565992254276
            ]
          },
          {
            "bias": -0.8123130506414189,
            "weights": [
              -0.49729831055609636,
              -0.08478956704661235,
              0.14165421238568912,
              -0.5576708031383312,
              -0.4492023660907737,
              -0.23349256747385522,
              0.09290365084318876,
              -0.3689301535205256
            ]
          },
          {
            "bias": -0.07770872801352198,
            "weights": [
              0.6405284323409391,
              -0.7999240950476552,
              0.18598138606006168,
              -0.005919119364946513,
              -0.6576773741859321,
              -0.9503832257856681,
              -0.5450256649206782,
              -1.6387223835040075
            ]
          },
          {
            "bias": -0.5391400444820138,
            "weights": [
              0.28123987001737333,
              0.18105890418818535,
              -0.27307192171489086,
              -0.13942369849095476,
              -0.16525358458564782,
              -0.18130583058166136,
              -0.530659037355072,
              -0.08653096818851531
            ]
          },
          {
            "bias": -0.5196967446318582,
            "weights": [
              -0.05713278264915253,
              -0.10809497962645308,
              -0.1518012952232009,
              0.06863020470454065,
              0.11707623295607669,
              0.05820527347800976,
              -0.1909089777403353,
              -0.06066939112307888
            ]
          },
          {
            "bias": -0.4523395354878717,
            "weights": [
              -1.3056276244796545,
              -0.8141880342980486,
              1.071764769691682,
              0.6983640267030468,
              -0.8647409314989213,
              -0.04470445198926821,
              -0.33738439121959735,
              -1.8976943402289832
            ]
          },
          {
            "bias": -0.5097422118216481,
            "weights": [
              -0.13063142549788412,
              0.0657894800582418,
              -0.19485637316926757,
              0.023321213073441985,
              -0.1497166599814127,
              -0.3533036277314679,
              -0.060346596332443034,
              -0.14768432549665597
            ]
          }
        ]
      },
      {
        "neurons": 1,
        "activation_function": {
          "type": "linear"
        },
        "neuron_weights": [
          {
            "bias": -0.26714523377340027,
            "weights": [
              -0.11172904150844733,
              -0.6418656147389981,
              -0.20786372412509085,
              0.17539727374534966,
              0.09119734321443101,
              -0.010924730805412076,
              -0.3394024354616707,
              -0.05421608429857676
            ]
          }
        ]
      }
    ]
  }
}