{
  "network": {
    "inputs": 2,
    "eta": 2.4512254906743078e-05,
    "momentum": 0.0,
    "adaptive_bold": null,
    "adaptive_annealing": 100,
    "layers": [
      {
        "neurons": 8,
        "activation_function": {
          "type": "htan",
          "a": 1,
          "beta": 0.6666666666666666
        },
        "neuron_weights": [
          {
            "bias": -0.965926301274323,
            "weights": [
              -0.21173876409774364,
              -1.578862154497022
            ]
          },
          {
            "bias": -0.6286471459962752,
            "weights": [
              -0.3078818915736598,
              3.6858996334789573
            ]
          },
          {
            "bias": -0.6388763310328311,
            "weights": [
              0.06305111605027715,
              -0.38057388336614545
            ]
          },
          {
            "bias": 0.1064600720351209,
            "weights": [
              1.4459905530274233,
              2.192989567791952
            ]
          },
          {
            "bias": 0.0720268050261219,
            "weights": [
              -0.23283286422390573,
              1.2343558094053357
            ]
          },
          {
            "bias": -0.14723927164876913,
            "weights": [
              -1.022051859082878,
              0.2001551512974095
            ]
          },
          {
            "bias": -0.5936897136380843,
            "weights": [
              0.2530383502632408,
              1.1032448585995163
            ]
          },
          {
            "bias": 0.017818529527017075,
            "weights": [
              1.9881620248900516,
              -2.5365290609709863
            ]
          }
        ]
      },
      {
        "neurons": 8,
        "activation_function": {
          "type": "htan",
          "a": 1,
          "beta": 0.6666666666666666
        },
        "neuron_weights": [
          {
            "bias": -0.5557530352796134,
            "weights": [
              -0.4560065363381258,
              0.0262634634198945,
              -0.12863824943435584,
              0.12356236462032638,
              -0.3146162118303095,
              0.20211094907672839,
              -0.7506726878782497,
              -0.06147404364013052
            ]
          },
          {
            "bias": -0.3002274137320955,
            "weights": [
              0.6866766602082495,
              -0.31482603657574937,
              -0.6984036386197432,
              1.1751076062549328,
              -1.1154550394300617,
              0.020783539134912883,
              -1.023457139081032,
              -0.7243012321088403
            ]
          },
          {
            "bias": -0.708160195804535,
            "weights": [
              0.9775712511261597,
              -0.7257027627871784,
              0.17047642187154546,
              0.2053723598531191,
              -1.2291679796168622,
              -0.3396934003062928,
              -0.8346274358481826,
              -0.01669630087720656
            ]
          },
          {
            "bias": 0.017438333761903582,
            "weights": [
              -0.013149334025500874,
              -0.8141271676399737,
              0.012319541847201245,
              1.2528988769670706,
              -0.5028850322790756,
              0.09934810357232378,
              -0.48887841233422763,
              -0.7010857133822517
            ]
          },
          {
            "bias": -0.35286800203770546,
            "weights": [
              0.3043738417123101,
              -0.35054234384516575,
              -0.6690961142330155,
              0.16676137166208574,
              -0.593677211999491,
              -0.0283109463105571,
              -0.6850420171421983,
              -0.18363593260697744
            ]
          },
          {
            "bias": -0.3072200236097005,
            "weights": [
              1.2165778453540612,
              -0.5765485309971199,
              -0.670756338609244,
              -1.3887118824701215,
              -0.5062122334349111,
              -1.736609499139354,
              -0.6579436308584549,
              -1.196782396390478
            ]
          },
          {
            "bias": -0.185930960118233,
            "weights": [
              -0.7839239937634283,
              0.15188780000508792,
              -0.3481190921651492,
              -0.4512151760029616,
              0.5069446958521886,
              -0.3880214799079997,
              0.2605200354087673,
              0.07621101234653012
            ]
          },
          {
            "bias": -0.5268092941059157,
            "weights": [
              -0.16303632499572127,
              -0.6659876987680053,
              -0.5603482722012157,
              0.032005658373253316,
              0.01723045192512699,
              -0.06108587159173132,
              -0.5470458400304462,
              -0.3381427453460923
            ]
          }
        ]
      },
      {
        "neurons": 1,
        "activation_function": {
          "type": "linear"
        },
        "neuron_weights": [
          {
            "bias": -0.03990890472249146,
            "weights": [
              -0.09531885580288463,
              2.6456024028261065,
              -0.6848865508930344,
              -1.18315441442211,
              -0.6552897542101886,
              -0.03484707071363189,
              0.32706330356267355,
              -0.24783832215656695
            ]
          }
        ]
      }
    ]
  }
}