{
  "network": {
    "epochs": 30000,
    "inputs": 2,
    "eta": 0.0024754926230319834,
    "momentum": 0.0,
    "adaptive_bold": null,
    "adaptive_annealing": 100,
    "layers": [
      {
        "neurons": 8,
        "activation_function": {
          "type": "htan",
          "a": 1,
          "beta": 0.6666666666666666
        },
        "neuron_weights": [
          {
            "bias": -1.6497503637797757,
            "weights": [
              -1.398633376047463,
              -1.1998172704585297
            ]
          },
          {
            "bias": 0.3389148843815258,
            "weights": [
              -1.7087740806863898,
              3.814517930615354
            ]
          },
          {
            "bias": -1.7320878660301262,
            "weights": [
              1.3458035073151502,
              0.9598039287673049
            ]
          },
          {
            "bias": 0.0590127486502028,
            "weights": [
              1.3302694949963316,
              2.3073179221352125
            ]
          },
          {
            "bias": 0.37625368564036216,
            "weights": [
              0.3330023621244624,
              -0.6372080916557168
            ]
          },
          {
            "bias": 0.08767064220738044,
            "weights": [
              -0.3941290579208091,
              -4.404331364408026
            ]
          },
          {
            "bias": -0.13480835216322745,
            "weights": [
              0.3426523095353124,
              -0.41962395775547723
            ]
          },
          {
            "bias": -0.35000549257005054,
            "weights": [
              1.6081772265873528,
              -0.14394899572949837
            ]
          }
        ]
      },
      {
        "neurons": 8,
        "activation_function": {
          "type": "htan",
          "a": 1,
          "beta": 0.6666666666666666
        },
        "neuron_weights": [
          {
            "bias": -0.36854217010670315,
            "weights": [
              -0.7971372323207604,
              -0.6427438775012895,
              0.3122176031837143,
              -0.021600123041572227,
              -0.3147707284236867,
              0.14866214874123113,
              -0.7031793941739556,
              0.30432730851049955
            ]
          },
          {
            "bias": 0.03390891343655811,
            "weights": [
              -0.09477076269246273,
              -1.3906679904624584,
              0.07270782961762197,
              -0.7214922801760907,
              -1.636521631634283,
              0.1872053793915338,
              -2.107622716009228,
              -0.9463050938731411
            ]
          },
          {
            "bias": -0.2885105517800653,
            "weights": [
              0.8366488055228496,
              0.07879382421275186,
              -1.069403636607811,
              0.9684561362183982,
              -0.6006234082622465,
              -0.2546675630608344,
              -0.28612414050750645,
              -0.40091583125860863
            ]
          },
          {
            "bias": -0.6749662771806032,
            "weights": [
              -0.4695088381991957,
              -0.846344339825657,
              0.07005600950534976,
              1.3485253157456152,
              -0.2512508759067368,
              0.47315974591668336,
              -0.1373714086868729,
              -0.9581975714744726
            ]
          },
          {
            "bias": -0.4101851976882959,
            "weights": [
              -0.04068796742839037,
              0.21377309271404907,
              -1.1088601255495292,
              0.7641156540548173,
              -0.09519367289959603,
              -0.08147666380039628,
              -0.1318646632253715,
              -0.01870751300548827
            ]
          },
          {
            "bias": -0.15018752948009867,
            "weights": [
              1.657639646937293,
              0.013671399056644558,
              -1.0146006517758606,
              -0.42524501457130787,
              -0.8431285253384627,
              -2.2025598520428478,
              -0.22272393301818438,
              -0.6212363912482848
            ]
          },
          {
            "bias": -0.1965548967516597,
            "weights": [
              -0.9739691618727092,
              -0.5338055709115138,
              0.298084905254854,
              -0.9698155297532317,
              0.09919092199466366,
              -0.29706225159297367,
              -0.25206190197550626,
              0.10008038011189598
            ]
          },
          {
            "bias": -0.40232236974708613,
            "weights": [
              -0.5931997980383303,
              -1.066361472857586,
              -0.2256175527788427,
              0.17467190965719034,
              -0.11430109131235508,
              0.020162635603301365,
              -0.6390002347037638,
              -0.4577847728161483
            ]
          }
        ]
      },
      {
        "neurons": 1,
        "activation_function": {
          "type": "linear"
        },
        "neuron_weights": [
          {
            "bias": -0.009397993989084058,
            "weights": [
              -0.5029665905323747,
              -0.7219862142743764,
              0.40691929445083824,
              0.007428460584749966,
              -0.21540444299142675,
              0.18107502518196547,
              0.025003433892603625,
              0.31060778244783566
            ]
          }
        ]
      }
    ]
  }
}
